73 16
</W> -0.0079193 0.25755 0.019332 0.1119 0.031988 -0.16769 0.19165 -0.022303 8.3154e-05 -0.091323 -0.087684 0.1145 0.10519 0.14975 0.1114 -0.0010414 
AH0 -0.080256 0.075266 -0.11548 -0.023247 -0.07225 -0.14422 0.089664 -0.13757 0.066751 -0.044972 -0.072043 0.17724 0.085692 0.016752 0.23117 -0.017466 
N -0.066893 0.04868 -0.087414 -0.016236 -0.050717 -0.098887 0.16056 0.029202 0.015854 0.075205 0.018171 0.23452 0.13288 0.03711 0.18622 -0.006072 
T -0.045896 -0.0034626 -0.0080231 0.068257 -0.13215 -0.062927 0.24105 0.00069445 -0.086539 0.078042 -0.020986 0.20297 0.032266 0.14695 0.1681 0.058274 
S -0.063915 0.08958 -0.0034201 0.075551 -0.050786 -0.02789 0.15552 -0.028746 -0.018116 0.095553 -0.045754 0.26407 -0.039566 0.1166 0.18061 0.063005 
R 0.004451 0.2122 -0.053993 0.029616 -0.12754 -0.15167 0.27113 -0.027187 0.090649 0.028218 -0.11709 0.1416 -0.02771 -0.096989 0.12398 0.018923 
D -0.092772 0.030725 -0.020268 0.12774 -0.039596 -0.14566 0.23619 0.069716 0.030331 0.032504 0.0022434 0.13348 0.050895 0.16216 0.12198 0.085177 
L -0.081492 0.082619 -0.016864 0.068477 -0.03158 -0.090265 0.19831 0.0093302 0.059601 0.036074 -0.034409 0.15536 0.0098668 0.057265 0.19411 0.076699 
K -0.13281 0.019744 -0.071221 -0.0053772 -0.085685 -0.012788 0.2474 0.028653 0.03683 0.097854 -0.016404 0.24726 -0.028984 0.0077784 0.17537 0.051935 
IH0 -0.060465 0.0081072 -0.059009 0.10281 -0.10592 -0.0020329 0.23148 -0.098328 0.030379 -0.076457 -0.22314 0.26547 0.066849 0.04136 0.058672 0.00021029 
Z -0.15104 0.11279 0.024397 0.088524 -0.034566 -0.14136 0.19903 0.0033935 0.088437 -0.022871 -0.00028664 0.11906 -0.054138 0.23809 0.14266 0.036544 
M -0.10412 0.097757 0.021528 0.085055 -0.04077 -0.067991 0.15839 0.067533 0.086673 0.055759 0.047392 0.19164 0.019606 0.055041 0.19399 0.05714 
DH -0.02771 0.086714 -0.03071 0.10394 -0.04932 -0.15885 0.083398 0.014708 0.045193 -0.14018 0.062041 0.21085 -0.019843 0.31234 0.10782 0.19176 
IH1 -0.18324 -0.086836 -0.091953 0.19634 -0.097456 -0.17365 0.04861 -0.092079 0.14089 -0.0088665 -0.19286 0.22604 0.101 0.12697 0.057437 0.0023819 
EH1 -0.16969 -0.051912 -0.012732 0.21927 -0.0059978 -0.13278 0.011924 -0.11197 0.13748 0.18103 -0.048982 0.35241 0.059465 0.029179 0.06998 -0.0046082 
AE1 -0.19074 -0.030688 -0.024163 0.16771 -0.042296 -0.17992 0.10389 -0.097119 0.14745 0.11236 -0.14278 0.20057 0.10958 0.048453 0.053744 -0.019589 
P -0.14881 0.016902 0.020527 -0.069543 -0.063251 -0.098155 0.22436 -0.0012753 0.079053 -0.0023126 0.15046 0.20988 -0.0018153 -0.0056484 0.21992 0.063539 
V -0.11133 0.21461 -0.11786 0.018949 -0.02236 -0.17929 -0.092384 -0.0085633 -0.15825 0.11949 0.069768 0.38083 -0.01641 0.15721 0.22393 0.071836 
AH1 -0.044132 0.051567 -0.0088985 0.16877 0.017298 -0.26379 -0.12509 -0.2273 0.076666 -0.15935 -0.050528 0.30513 0.09828 0.14687 0.15606 0.042975 
ER0 -0.13481 0.14463 0.017283 0.013354 0.014548 -0.21421 0.14246 -0.13106 0.016989 0.11652 0.023224 0.291 0.031553 0.077522 0.073788 -0.075395 
AA1 -0.1871 -0.054149 0.13954 0.24998 -0.013899 -0.053719 0.069395 0.10346 0.18972 0.014664 -0.11322 0.32242 0.19668 -0.080307 0.078195 -0.0046096 
B -0.089346 0.13288 0.028452 0.12212 -0.035575 -0.11589 0.35902 0.089951 0.014994 -0.030724 0.040678 0.13158 0.090256 0.056523 0.033738 0.015435 
F 0.039602 0.32127 -0.035267 0.054207 -0.091968 -0.13298 0.23141 0.031821 0.15912 0.05692 -0.12104 0.13865 -0.13859 0.059537 0.086511 0.078114 
W -0.13216 0.23087 0.0056041 0.021935 -0.078243 -0.18494 0.31854 -0.021094 -0.10603 -0.18741 -0.092279 0.12786 0.036512 0.18025 -0.0028782 0.02274 
IY0 -0.059979 0.099284 0.0078238 0.037998 -0.088764 -0.042224 0.043967 0.016906 0.095078 0.15809 -0.04412 0.20577 0.030814 0.10126 0.28276 -0.0067096 
EY1 -0.032938 0.008585 -0.24003 0.12036 -0.10946 -0.18208 0.087684 -0.057874 0.20007 0.024288 0.003657 0.24966 0.12556 -0.22165 0.17427 -0.057185 
UW1 -0.3245 0.037748 -0.21913 0.21055 -0.13558 0.016713 0.14925 -0.0499 0.14275 0.010792 -0.01306 0.17069 0.04087 0.20701 0.032959 -0.17481 
AO1 -0.0028983 0.052321 0.030559 0.38077 -0.022491 -0.024338 0.073197 0.065029 0.40233 0.071248 -0.18645 0.2698 -0.094477 0.068788 0.018784 0.13913 
IY1 -0.16575 0.0063662 0.0055566 0.3414 -0.041745 -0.28721 0.14166 -0.036644 0.16212 0.009391 -0.08293 0.085074 0.12554 0.092523 0.023395 -0.020363 
</s> -0.41195 0.44058 0.038675 0.015716 -0.4584 0.22438 -0.23083 -0.23571 0.053275 0.06636 0.18454 -0.071981 0.64491 -0.10828 -0.80645 0.99444 
UNKNOWN -0.12955 0.26222 -0.14589 0.13274 0.61733 -0.38994 0.0091595 0.35113 0.035217 -0.17853 -0.31491 0.10549 0.46715 0.17767 0.14115 0.18703 
HH -0.1457 0.17506 0.12968 0.2471 -0.11212 -0.31753 0.27668 0.013676 -0.083146 0.26719 0.12965 0.056271 -0.0076349 0.39368 -0.089731 0.014676 
AY1 -0.11575 -0.072761 0.056506 0.28935 -0.085156 -0.16684 0.098963 -0.018415 0.1064 -0.044538 -0.13915 0.24213 0.099273 0.10385 0.062219 0.02597 
SH 0.0045704 -0.13424 -0.27935 -0.19677 -0.12294 -0.10341 0.14219 0.21437 0.23219 0.21132 0.19279 0.31991 0.013471 -0.072034 0.31536 0.12957 
NG -0.0032986 0.015951 -0.015696 0.13316 -0.10238 0.038217 0.36913 0.00569 0.072346 -0.15438 -0.19248 0.2236 -0.16996 0.29636 0.021632 0.14525 
OW1 -0.10537 0.015331 -0.094789 0.21785 0.08931 -0.18338 0.21427 -0.14639 0.15015 0.10647 -0.04199 0.22809 0.093635 -0.013044 -0.015693 -0.01131 
G 0.0008238 0.11487 -0.06439 0.0818 -0.064498 -0.092128 0.25813 0.12303 0.14428 0.10415 -0.032675 0.19608 -0.022983 0.039999 0.094583 0.092703 
ER1 -0.076548 0.055542 -0.019968 0.33702 -0.17123 -0.12856 -0.15295 -0.11789 -0.0073648 0.023671 -0.30118 0.29717 0.072641 0.1582 0.1493 -0.012641 
JH -0.038551 0.12543 0.35341 0.0087623 -0.20811 -0.024356 0.031917 0.15943 -0.06023 -0.042927 -0.024028 0.23641 0.1215 0.054133 0.36442 0.017386 
NUMBER 0.2306 0.25346 0.35026 0.19541 -0.030172 0.022794 0.20393 0.45561 0.01272 -0.056602 -0.077905 0.31316 0.70577 -0.038463 0.069838 -0.37593 
Y 0.17881 -0.18552 -0.05674 0.15676 -0.66825 -0.22148 -0.0037868 0.15892 -0.15446 0.27093 -0.28199 -0.17976 0.36646 0.092739 0.50298 0.044217 
CH -0.1628 0.047986 0.15256 0.059592 -0.10639 -0.20264 0.055111 0.12664 0.050163 -0.084236 -0.057864 0.1495 0.030156 0.27357 0.18869 0.14661 
IH2 -0.080712 -0.20467 -0.21641 -0.11697 0.05309 0.038364 0.21796 -0.48434 0.032578 -0.02316 -0.071522 0.083286 0.16773 0.054822 0.29275 0.053091 
AW1 0.12164 -0.020049 -0.14769 0.32187 -0.06689 -0.31775 0.1429 -0.15091 0.025022 -0.054262 0.059651 0.34117 0.1681 0.25502 -0.14424 -0.066319 
TH 0.11009 0.20347 -0.21459 0.29563 -0.073817 -0.26581 0.239 0.029693 -0.1268 0.13896 0.080103 0.21488 -0.022789 0.14476 0.0087033 0.064435 
OW0 -0.057087 0.29523 0.13289 0.15856 0.31799 0.020304 0.30474 0.018435 0.15311 0.32469 -0.27719 0.0027106 0.12652 -0.091891 0.187 0.042542 
EH2 0.14583 -0.065566 0.17541 -0.10353 -0.22657 0.1486 -0.010175 -0.16329 0.38894 -0.073944 0.033888 0.18493 0.24059 0.20301 0.32195 -0.15974 
UH1 -0.069605 -0.024636 -0.29369 0.2273 -0.21855 -0.11386 0.3404 0.039839 0.35214 -0.23357 -0.07508 0.2377 -0.037932 0.11365 -0.17354 -0.071176 
EY2 -0.12829 -0.14031 -0.038045 0.12147 0.082279 0.091818 0.21789 -0.12028 0.013158 0.0039549 -0.10178 0.28101 0.13579 0.2986 0.079766 0.0010364 
UW0 -0.32702 0.28307 -0.3335 -0.16482 -0.31048 0.22069 0.086626 0.079499 0.23503 -0.050232 -0.014821 0.13051 0.20483 0.38995 0.0875 -0.51433 
AE2 0.11328 0.059718 0.024351 0.18469 -0.033447 0.21894 0.1382 -0.16299 0.36943 0.016054 -0.17604 0.12956 -0.03392 0.077492 0.26505 0.016898 
AA2 -0.03995 -0.11952 -0.03902 -0.10334 0.040186 0.011573 0.038974 -0.30675 0.49193 -0.043819 0.24615 0.020388 0.23847 0.20962 0.33462 -0.1363 
IY2 -0.32027 0.017568 -0.0035087 0.46709 -0.0085923 0.016436 0.17594 0.034065 0.055614 -0.15682 0.32405 -0.028878 0.017629 -0.3932 0.4816 0.10131 
EH0 -0.15883 -0.036774 0.45388 0.059417 -0.060397 0.074955 0.2514 -0.18168 0.048784 -0.34695 0.094274 0.23392 0.21645 -0.21648 0.25442 -0.084214 
AY2 -0.3852 -0.038483 0.16134 0.061687 0.047078 -0.12647 0.1018 -0.1513 0.42441 0.0087626 -0.20733 -0.002966 -0.27426 0.18449 0.26538 0.19438 
AO2 0.38908 -0.0052536 -0.22909 0.18372 -0.045751 -0.10071 0.24553 -0.083091 0.52682 -0.17183 0.090071 0.1296 0.016319 0.14669 0.056201 0.10931 
OW2 0.25664 0.20454 -0.039785 0.33938 0.1645 0.041413 0.22254 -0.22639 0.14549 0.086408 0.081817 0.051894 0.093843 -0.11437 0.2823 0.035686 
AA0 0.05837 -0.16569 0.057919 0.052674 0.45153 0.27486 0.3762 0.083868 0.24585 0.43794 0.13959 0.16922 0.54286 0.054559 0.15292 -0.035444 
UW2 -0.15207 0.69678 -0.0055845 0.0034299 -0.1376 0.3933 -0.49953 -0.053909 -0.021747 0.063865 -0.21846 0.32791 0.31145 0.41347 0.35612 -0.52194 
OY1 -0.27075 -0.016808 0.40184 0.18474 -0.10818 -0.10698 0.083128 -0.047336 -0.0021892 -0.31778 0.09006 0.55774 0.081703 -0.16072 0.05959 -0.11418 
AE0 0.01389 -0.12733 -0.027933 0.010394 0.15224 0.18994 0.17854 -0.25727 0.16771 0.11053 -0.1821 0.22453 0.032293 0.15991 0.24191 0.15733 
ZH -0.13489 0.032391 -0.47195 0.34813 0.0532 0.15435 -0.15095 0.038405 -0.3702 -0.11594 0.074032 0.15191 -0.0054421 0.23101 0.61656 0.29202 
AY0 -0.56749 0.092192 0.22842 -0.085897 0.064159 -0.31919 -0.044587 -0.18068 0.36853 0.072184 -0.10294 -0.13493 -0.26689 0.035255 0.47612 0.17544 
AO0 0.10975 0.48012 -0.41132 0.72397 0.0069089 0.34148 -0.022522 -0.10778 0.24824 -0.26385 0.35206 -0.11934 -0.050533 -0.17167 0.50362 -0.014101 
AH2 -0.041925 -0.24602 0.16554 -0.077805 -0.09506 -0.11902 0.23228 -0.35921 0.20434 -0.12089 0.029741 0.30631 -0.10312 0.31664 0.06853 0.074673 
AW2 0.18924 0.13647 0.26982 0.50095 0.089414 -0.39602 0.058475 -0.73339 -0.091721 0.23782 0.23417 0.20376 0.02984 0.63399 -0.19293 -0.10117 
EY0 -0.28776 0.00055926 -0.11417 0.47722 0.08606 0.15248 0.52765 0.061207 0.11987 0.16541 0.069098 -0.37735 0.46599 0.2559 0.049705 -0.25631 
ER2 -0.26266 -0.41256 -0.28745 0.1071 0.061503 0.28425 0.28652 -0.21942 -0.043411 -0.23767 0.079236 0.20488 0.067877 0.17605 0.35189 0.087545 
UH2 -0.40242 -0.021207 -0.15088 0.10428 -0.43663 -0.44252 0.055613 0.05707 0.55767 -0.076186 0.44248 -0.24609 0.21931 0.52393 0.047088 -0.44502 
UH0 -0.63599 0.15975 0.26646 0.2144 -0.05069 0.21543 0.093026 0.00072316 -0.037916 -0.21005 -0.63523 -0.23504 0.24968 0.046094 0.45183 -0.18955 
AW0 0.68885 0.29334 -0.23163 -0.32703 0.19807 -0.60958 -0.17602 -0.22358 0.94459 -0.16172 0.12667 0.094652 0.18367 0.03235 0.26206 0.077958 
OY2 0.0010514 0.1054 0.14647 0.40233 -0.027603 -0.22361 0.14997 -0.21349 0.045345 -0.2764 0.70802 0.34478 -0.010382 -0.24497 0.17944 -0.063255 
OY0 -0.13655 0.14682 0.37067 0.53667 0.57724 -0.035081 0.053264 -0.087305 -0.091193 0.23873 0.011377 0.1891 0.10499 0.3059 0.19274 0.16884 
